{"learner":{"attributes":{"best_iteration":"29","best_score":"0.866603120840409","scikit_learn":"{\"_estimator_type\": \"classifier\"}"},"feature_names":["CreditScore","Age","Tenure","Balance","NumOfProducts","HasCrCard","IsActiveMember","EstimatedSalary","Gender_Female","Gender_Male","Geography_France","Geography_Germany","Geography_Spain"],"feature_types":["int","int","int","float","int","int","int","float","int","int","int","int","int"],"gradient_booster":{"model":{"gbtree_model_param":{"num_parallel_tree":"1","num_trees":"40"},"iteration_indptr":[0,1,2,3,4,5,6,7,8,9,10,11,12,13,14,15,16,17,18,19,20,21,22,23,24,25,26,27,28,29,30,31,32,33,34,35,36,37,38,39,40],"tree_info":[0,0,0,0,0,0,0,0,0,0,0,0,0,0,0,0,0,0,0,0,0,0,0,0,0,0,0,0,0,0,0,0,0,0,0,0,0,0,0,0],"trees":[{"base_weights":[-1.5949365E-1,-6.498218E-1,1.0038077E0,-7.3612326E-1,2.9881961E0,2.0032637E0,1.6548511E-1,-1.2016764E-1,-3.2129368E-1,4.959493E-1,1.0956745E0,3.6232156E-1,9.8283887E-1,2.8631995E-3,1.0229529E0],"categories":[],"categories_nodes":[],"categories_segments":[],"categories_sizes":[],"default_left":[0,0,0,0,0,0,0,0,0,0,0,0,0,0,0],"id":0,"left_children":[1,3,5,7,9,11,13,-1,-1,-1,-1,-1,-1,-1,-1],"loss_changes":[7.372837E2,2.876285E2,3.2084222E2,9.94465E1,1.2813263E1,1.7301178E2,1.0598801E2,0E0,0E0,0E0,0E0,0E0,0E0,0E0,0E0],"parents":[2147483647,0,0,1,1,2,2,3,3,4,4,5,5,6,6],"right_children":[2,4,6,8,10,12,14,-1,-1,-1,-1,-1,-1,-1,-1],"split_conditions":[4.3E1,3E0,1E0,2E0,5.111626E4,5E1,3E0,-1.2016764E-1,-3.2129368E-1,4.959493E-1,1.0956745E0,3.6232156E-1,9.8283887E-1,2.8631995E-3,1.0229529E0],"split_indices":[1,4,6,4,3,1,4,0,0,0,0,0,0,0,0],"split_type":[0,0,0,0,0,0,0,0,0,0,0,0,0,0,0],"sum_hessian":[1.2904307E3,9.0810736E2,3.8232324E2,8.878435E2,2.026385E1,1.73767E2,2.0855626E2,4.445494E2,4.4329413E2,7.8903484E0,1.2373501E1,1.0813364E2,6.5633354E1,1.9994861E2,8.607653E0],"tree_param":{"num_deleted":"0","num_feature":"13","num_nodes":"15","size_leaf_vector":"1"}},{"base_weights":[-1.4673096E-1,-5.533765E-1,5.417146E-1,-6.960113E-1,-1.0303346E-1,2.2673582E-1,1.2933627E0,-2.3992573E-1,-1.2006428E-1,-1.3774787E-1,6.603773E-2,2.052768E-1,-6.0324546E-2,-4.6519816E-2,4.389037E-1],"categories":[],"categories_nodes":[],"categories_segments":[],"categories_sizes":[],"default_left":[0,0,0,0,0,0,0,0,0,0,0,0,0,0,0],"id":1,"left_children":[1,3,5,7,9,11,13,-1,-1,-1,-1,-1,-1,-1,-1],"loss_changes":[3.4779013E2,5.0084015E1,1.0895001E2,1.7871674E1,2.1851347E1,6.402074E1,3.365706E1,0E0,0E0,0E0,0E0,0E0,0E0,0E0,0E0],"parents":[2147483647,0,0,1,1,2,2,3,3,4,4,5,5,6,6],"right_children":[2,4,6,8,10,12,14,-1,-1,-1,-1,-1,-1,-1,-1],"split_conditions":[4.2E1,1E0,1E0,3.8E1,3.4E1,1E0,9.284759E4,-2.3992573E-1,-1.2006428E-1,-1.3774787E-1,6.603773E-2,2.052768E-1,-6.0324546E-2,-4.6519816E-2,4.389037E-1],"split_indices":[1,11,11,1,1,6,3,0,0,0,0,0,0,0,0],"split_type":[0,0,0,0,0,0,0,0,0,0,0,0,0,0,0],"sum_hessian":[1.2402439E3,7.798214E2,4.604225E2,5.91829E2,1.8799242E2,3.2537534E2,1.3504716E2,4.368977E2,1.5493126E2,8.92342E1,9.875822E1,1.5693994E2,1.684354E2,1.41682E1,1.2087896E2],"tree_param":{"num_deleted":"0","num_feature":"13","num_nodes":"15","size_leaf_vector":"1"}},{"base_weights":[-1.2403499E-1,-2.2313957E-1,1.8513701E0,2.1674007E-1,-7.887916E-1,1.911324E0,-1.1653252E-2,-1.11678414E-1,2.0882095E-1,-3.0848557E-1,-1.4829637E-1,3.0111712E-1,5.992471E-1],"categories":[],"categories_nodes":[],"categories_segments":[],"categories_sizes":[],"default_left":[0,0,0,0,0,0,0,0,0,0,0,0,0],"id":2,"left_children":[1,3,5,7,9,11,-1,-1,-1,-1,-1,-1,-1],"loss_changes":[2.3293854E2,2.8180627E2,6.5166626E0,1.8024684E2,3.4427124E1,2.3058014E0,0E0,0E0,0E0,0E0,0E0,0E0,0E0],"parents":[2147483647,0,0,1,1,2,2,3,3,4,4,5,5],"right_children":[2,4,6,8,10,12,-1,-1,-1,-1,-1,-1,-1],"split_conditions":[3E0,2E0,6.6E1,3.9E1,4.575278E4,3.2E1,-1.1653252E-2,-1.11678414E-1,2.0882095E-1,-3.0848557E-1,-1.4829637E-1,3.0111712E-1,5.992471E-1],"split_indices":[4,4,1,1,3,1,0,0,0,0,0,0,0],"split_type":[0,0,0,0,0,0,0,0,0,0,0,0,0],"sum_hessian":[1.1867378E3,1.130889E3,5.58488E1,6.365176E2,4.9437143E2,5.412102E1,1.7277828E0,2.856875E2,3.5083008E2,2.7126166E2,2.2310979E2,5.789378E0,4.8331642E1],"tree_param":{"num_deleted":"0","num_feature":"13","num_nodes":"13","size_leaf_vector":"1"}},{"base_weights":[-1.094783E-1,-3.5006464E-1,4.1441348E-1,-5.722927E-1,-1.8397157E-1,8.296981E-1,4.255746E-3,-1.191619E-1,-2.2223806E-1,2.0983707E-2,-1.15029275E-1,1.676909E-1,3.8123593E-1,6.866691E-2,-2.6603812E-1],"categories":[],"categories_nodes":[],"categories_segments":[],"categories_sizes":[],"default_left":[0,0,0,0,0,0,0,0,0,0,0,0,0,0,0],"id":3,"left_children":[1,3,5,7,9,11,13,-1,-1,-1,-1,-1,-1,-1,-1],"loss_changes":[1.416511E2,2.8312813E1,6.025624E1,9.407166E0,2.241658E1,2.0281082E1,3.6030167E1,0E0,0E0,0E0,0E0,0E0,0E0,0E0,0E0],"parents":[2147483647,0,0,1,1,2,2,3,3,4,4,5,5,6,6],"right_children":[2,4,6,8,10,12,14,-1,-1,-1,-1,-1,-1,-1,-1],"split_conditions":[4.5E1,3.5E1,1E0,1E0,1E0,5.2E1,6.4E1,-1.191619E-1,-2.2223806E-1,2.0983707E-2,-1.15029275E-1,1.676909E-1,3.8123593E-1,6.866691E-2,-2.6603812E-1],"split_indices":[1,1,6,10,9,1,1,0,0,0,0,0,0,0,0],"split_type":[0,0,0,0,0,0,0,0,0,0,0,0,0,0,0],"sum_hessian":[1.1216965E3,7.689186E2,3.5277795E2,3.278365E2,4.410821E2,1.7478516E2,1.779928E2,1.6242287E2,1.654136E2,1.9433612E2,2.4674596E2,1.0971328E2,6.507187E1,1.4274887E2,3.5243927E1],"tree_param":{"num_deleted":"0","num_feature":"13","num_nodes":"15","size_leaf_vector":"1"}},{"base_weights":[-9.6583836E-2,-1.7079286E-1,1.2896618E0,1.565242E-1,-6.634155E-1,8.8253033E-1,1.4713873E0,1.2824607E-1,-3.9663333E-2,-2.735995E-1,-1.1739056E-1,-1.1617277E-2,3.4745112E-1,4.5435202E-1,1.5856643E-1],"categories":[],"categories_nodes":[],"categories_segments":[],"categories_sizes":[],"default_left":[0,0,0,0,0,0,0,0,0,0,0,0,0,0,0],"id":4,"left_children":[1,3,5,7,9,11,13,-1,-1,-1,-1,-1,-1,-1,-1],"loss_changes":[1.0976148E2,1.6321927E2,2.713234E0,4.767018E1,2.6972229E1,4.9286337E0,6.6270447E-1,0E0,0E0,0E0,0E0,0E0,0E0,0E0,0E0],"parents":[2147483647,0,0,1,1,2,2,3,3,4,4,5,5,6,6],"right_children":[2,4,6,8,10,12,14,-1,-1,-1,-1,-1,-1,-1,-1],"split_conditions":[3E0,2E0,4.016988E4,1E0,5.53284E4,6.563233E4,1.8901623E5,1.2824607E-1,-3.9663333E-2,-2.735995E-1,-1.1739056E-1,-1.1617277E-2,3.4745112E-1,4.5435202E-1,1.5856643E-1],"split_indices":[4,4,3,6,3,7,7,0,0,0,0,0,0,0,0],"split_type":[0,0,0,0,0,0,0,0,0,0,0,0,0,0,0],"sum_hessian":[1.0638308E3,1.01060736E3,5.3223423E1,6.0758636E2,4.0302103E2,1.8232458E1,3.4990967E1,3.131919E2,2.9439447E2,2.0938809E2,1.9363293E2,4.396804E0,1.3835655E1,3.2880856E1,2.110109E0],"tree_param":{"num_deleted":"0","num_feature":"13","num_nodes":"15","size_leaf_vector":"1"}},{"base_weights":[-5.3798966E-2,-2.2438484E-1,3.569048E-1,-2.7850768E-1,8.766624E-1,4.7475573E-1,-6.939369E-1,-2.1710284E-2,-1.826231E-1,1.15981005E-1,3.536757E-1,2.0838197E-1,1.2960151E-2,-1.0329966E-1,-3.3928666E-1],"categories":[],"categories_nodes":[],"categories_segments":[],"categories_sizes":[],"default_left":[0,0,0,0,0,0,0,0,0,0,0,0,0,0,0],"id":5,"left_children":[1,3,5,7,9,11,13,-1,-1,-1,-1,-1,-1,-1,-1],"loss_changes":[7.176797E1,4.3362804E1,3.7564568E1,4.6956543E1,4.6014843E0,2.5676117E1,4.3048944E0,0E0,0E0,0E0,0E0,0E0,0E0,0E0,0E0],"parents":[2147483647,0,0,1,1,2,2,3,3,4,4,5,5,6,6],"right_children":[2,4,6,8,10,12,14,-1,-1,-1,-1,-1,-1,-1,-1],"split_conditions":[4.6E1,3E0,6.6E1,2E0,5.111626E4,2E0,7.2E1,-2.1710284E-2,-1.826231E-1,1.15981005E-1,3.536757E-1,2.0838197E-1,1.2960151E-2,-1.0329966E-1,-3.3928666E-1],"split_indices":[1,4,1,4,3,4,1,0,0,0,0,0,0,0,0],"split_type":[0,0,0,0,0,0,0,0,0,0,0,0,0,0,0],"sum_hessian":[1.02223175E3,7.22567E2,2.996647E2,6.8942487E2,3.314216E1,2.6993945E2,2.9725248E1,4.252157E2,2.6420917E2,1.3512663E1,1.9629494E1,1.7843054E2,9.150892E1,1.7507538E1,1.221771E1],"tree_param":{"num_deleted":"0","num_feature":"13","num_nodes":"15","size_leaf_vector":"1"}},{"base_weights":[-5.1124383E-2,-3.6183485E-1,1.0768592E-1,-3.9062396E-1,1.0623043E0,-5.3202093E-2,4.6431297E-1,-5.8968753E-2,-1.7435622E-1,5.4831445E-1,-2.2071426E-1,6.038586E-2,-8.2923084E-2,1.6802654E-1,-1.9227721E-1],"categories":[],"categories_nodes":[],"categories_segments":[],"categories_sizes":[],"default_left":[0,0,0,0,0,0,0,0,0,0,0,0,0,0,0],"id":6,"left_children":[1,3,5,7,9,11,13,-1,-1,-1,-1,-1,-1,-1,-1],"loss_changes":[4.8369526E1,1.4007229E1,3.725893E1,1.1929874E1,1.0754997E1,2.5508932E1,2.1725601E1,0E0,0E0,0E0,0E0,0E0,0E0,0E0,0E0],"parents":[2147483647,0,0,1,1,2,2,3,3,4,4,5,5,6,6],"right_children":[2,4,6,8,10,12,14,-1,-1,-1,-1,-1,-1,-1,-1],"split_conditions":[3.7E1,1.8146148E5,1E0,1E0,1E0,1E0,1.5582822E5,-5.8968753E-2,-1.7435622E-1,5.4831445E-1,-2.2071426E-1,6.038586E-2,-8.2923084E-2,1.6802654E-1,-1.9227721E-1],"split_indices":[1,3,11,6,11,9,3,0,0,0,0,0,0,0,0],"split_type":[0,0,0,0,0,0,0,0,0,0,0,0,0,0,0],"sum_hessian":[9.7846124E2,3.3052148E2,6.4793976E2,3.246837E2,5.8377934E0,4.470909E2,2.0084888E2,1.6187192E2,1.6281178E2,4.083111E0,1.7546825E0,2.0895332E2,2.3813757E2,1.8528598E2,1.5562906E1],"tree_param":{"num_deleted":"0","num_feature":"13","num_nodes":"15","size_leaf_vector":"1"}},{"base_weights":[-4.7958232E-2,-9.748728E-2,9.155101E-1,8.139294E-2,-4.4183606E-1,6.03239E-1,1.2484037E0,1.8684554E-1,-1.40015315E-2,-2.1997918E-1,-5.190206E-2,3.1080056E-2,2.857161E-1,3.9782634E-1,3.147239E-2],"categories":[],"categories_nodes":[],"categories_segments":[],"categories_sizes":[],"default_left":[0,0,0,0,0,0,0,0,0,0,0,0,0,0,0],"id":7,"left_children":[1,3,5,7,9,11,13,-1,-1,-1,-1,-1,-1,-1,-1],"loss_changes":[4.5465164E1,5.5799683E1,4.089916E0,4.139863E1,2.4132927E1,4.4324045E0,1.7809372E0,0E0,0E0,0E0,0E0,0E0,0E0,0E0,0E0],"parents":[2147483647,0,0,1,1,2,2,3,3,4,4,5,5,6,6],"right_children":[2,4,6,8,10,12,14,-1,-1,-1,-1,-1,-1,-1,-1],"split_conditions":[3E0,2E0,4.3E1,5.765749E4,5.53284E4,5.111626E4,6.6E1,1.8684554E-1,-1.40015315E-2,-2.1997918E-1,-5.190206E-2,3.1080056E-2,2.857161E-1,3.9782634E-1,3.147239E-2],"split_indices":[4,4,1,3,3,3,1,0,0,0,0,0,0,0,0],"split_type":[0,0,0,0,0,0,0,0,0,0,0,0,0,0,0],"sum_hessian":[9.4988495E2,9.042966E2,4.558838E1,5.956405E2,3.0865607E2,2.4973793E1,2.0614588E1,1.1319922E2,4.8244125E2,1.4727405E2,1.61382E2,1.0806361E1,1.4167433E1,1.9153692E1,1.4608952E0],"tree_param":{"num_deleted":"0","num_feature":"13","num_nodes":"15","size_leaf_vector":"1"}},{"base_weights":[-2.7152486E-2,1.7761917E-1,-2.1365635E-1,3.4333173E-2,4.3067402E-1,-3.9329976E-1,-5.7009377E-2,6.105495E-2,-5.0769944E-2,1.424315E-1,-2.672772E-1,-1.2547831E-1,9.065163E-2,-4.868908E-3,-3.189563E-1],"categories":[],"categories_nodes":[],"categories_segments":[],"categories_sizes":[],"default_left":[0,0,0,0,0,0,0,0,0,0,0,0,0,0,0],"id":8,"left_children":[1,3,5,7,9,11,13,-1,-1,-1,-1,-1,-1,-1,-1],"loss_changes":[3.5133114E1,1.5887304E1,1.3523848E1,9.715596E0,9.658216E0,4.0160522E0,1.0581938E1,0E0,0E0,0E0,0E0,0E0,0E0,0E0,0E0],"parents":[2147483647,0,0,1,1,2,2,3,3,4,4,5,5,6,6],"right_children":[2,4,6,8,10,12,14,-1,-1,-1,-1,-1,-1,-1,-1],"split_conditions":[1E0,4.5E1,4E1,1E0,7.2E1,3E0,6.8E1,6.105495E-2,-5.0769944E-2,1.424315E-1,-2.672772E-1,-1.2547831E-1,9.065163E-2,-4.868908E-3,-3.189563E-1],"split_indices":[9,1,1,6,1,4,1,0,0,0,0,0,0,0,0],"split_type":[0,0,0,0,0,0,0,0,0,0,0,0,0,0,0],"sum_hessian":[9.179451E2,4.3756686E2,4.8037827E2,2.8010184E2,1.5746501E2,2.2306065E2,2.5731763E2,1.5296957E2,1.2713228E2,1.5300061E2,4.4643946E0,2.1571692E2,7.3437247E0,2.482715E2,9.046136E0],"tree_param":{"num_deleted":"0","num_feature":"13","num_nodes":"15","size_leaf_vector":"1"}},{"base_weights":[-1.6318254E-2,1.4687303E-1,-1.9591613E-1,6.9170184E-2,8.8896155E-1,-2.0880783E-1,5.95977E-1,4.2116877E-1,1.6173298E-2,2.92098E-1,-1.9099337E-1,2.8607917E-1,-6.719994E-2],"categories":[],"categories_nodes":[],"categories_segments":[],"categories_sizes":[],"default_left":[0,0,0,0,0,0,0,0,0,0,0,0,0],"id":9,"left_children":[1,3,5,7,9,11,-1,-1,-1,-1,-1,-1,-1],"loss_changes":[2.6553385E1,2.7312664E1,1.25492E1,8.69874E0,6.423294E0,7.800806E0,0E0,0E0,0E0,0E0,0E0,0E0,0E0],"parents":[2147483647,0,0,1,1,2,2,3,3,4,4,5,5],"right_children":[2,4,6,8,10,12,-1,-1,-1,-1,-1,-1,-1],"split_conditions":[1E0,5.3E1,2.0169606E5,4.3E2,7.1E1,4.37E2,5.95977E-1,4.2116877E-1,1.6173298E-2,2.92098E-1,-1.9099337E-1,2.8607917E-1,-6.719994E-2],"split_indices":[6,1,3,0,1,0,0,0,0,0,0,0,0],"split_type":[0,0,0,0,0,0,0,0,0,0,0,0,0],"sum_hessian":[9.040047E2,4.737316E2,4.3027313E2,4.2981915E2,4.391243E1,4.286455E2,1.6276095E0,3.829716E0,4.2598944E2,4.1945496E1,1.9669352E0,4.732996E0,4.239125E2],"tree_param":{"num_deleted":"0","num_feature":"13","num_nodes":"13","size_leaf_vector":"1"}},{"base_weights":[-9.525074E-3,-1.4722204E-1,2.9725128E-1,-1.9280812E-1,7.8857327E-1,5.710297E-1,-1.9706742E-1,-6.656501E-2,3.1039718E-1,1.1700634E-1,3.380262E-1,-2.091365E-1,2.1284619E-1,-9.668418E-2,2.1467689E-1],"categories":[],"categories_nodes":[],"categories_segments":[],"categories_sizes":[],"default_left":[0,0,0,0,0,0,0,0,0,0,0,0,0,0,0],"id":10,"left_children":[1,3,5,7,9,11,13,-1,-1,-1,-1,-1,-1,-1,-1],"loss_changes":[3.7751514E1,2.6463495E1,3.7583008E1,2.1247995E1,3.448557E0,3.1826473E1,1.1593357E1,0E0,0E0,0E0,0E0,0E0,0E0,0E0,0E0],"parents":[2147483647,0,0,1,1,2,2,3,3,4,4,5,5,6,6],"right_children":[2,4,6,8,10,12,14,-1,-1,-1,-1,-1,-1,-1,-1],"split_conditions":[1E0,3E0,2E0,1.8146148E5,9.324926E4,8.747163E4,3E0,-6.656501E-2,3.1039718E-1,1.1700634E-1,3.380262E-1,-2.091365E-1,2.1284619E-1,-9.668418E-2,2.1467689E-1],"split_indices":[11,4,4,3,7,3,4,0,0,0,0,0,0,0,0],"split_type":[0,0,0,0,0,0,0,0,0,0,0,0,0,0,0],"sum_hessian":[8.916565E2,6.15782E2,2.7587445E2,5.879354E2,2.7846565E1,1.7744266E2,9.8431816E1,5.751314E2,1.2804024E1,1.3770761E1,1.4075806E1,1.7069143E1,1.603735E2,8.7125404E1,1.1306406E1],"tree_param":{"num_deleted":"0","num_feature":"13","num_nodes":"15","size_leaf_vector":"1"}},{"base_weights":[-2.8045785E-3,-1.0696303E-1,2.2409421E-1,-1.4327222E-1,6.5145856E-1,-7.494203E-1,3.1162545E-1,9.977998E-4,-9.5367536E-2,1.4089024E-1,4.6314934E-1,-3.2308277E-1,-1.5589789E-1,1.1855621E-1,-1.9383255E-1],"categories":[],"categories_nodes":[],"categories_segments":[],"categories_sizes":[],"default_left":[0,0,0,0,0,0,0,0,0,0,0,0,0,0,0],"id":11,"left_children":[1,3,5,7,9,11,13,-1,-1,-1,-1,-1,-1,-1,-1],"loss_changes":[2.0364363E1,1.6355822E1,2.3335426E1,1.4448907E1,3.682002E0,1.1454716E0,2.0218748E1,0E0,0E0,0E0,0E0,0E0,0E0,0E0,0E0],"parents":[2147483647,0,0,1,1,2,2,3,3,4,4,5,5,6,6],"right_children":[2,4,6,8,10,12,14,-1,-1,-1,-1,-1,-1,-1,-1],"split_conditions":[1E0,1.694454E5,8.665613E4,9.444377E4,2.0169606E5,6.932947E4,1.5582822E5,9.977998E-4,-9.5367536E-2,1.4089024E-1,4.6314934E-1,-3.2308277E-1,-1.5589789E-1,1.1855621E-1,-1.9383255E-1],"split_indices":[11,3,3,3,3,3,3,0,0,0,0,0,0,0,0],"split_type":[0,0,0,0,0,0,0,0,0,0,0,0,0,0,0],"sum_hessian":[8.59662E2,5.895542E2,2.7010776E2,5.6339307E2,2.6161161E1,2.1658802E1,2.4844896E2,3.0680353E2,2.5658954E2,2.3000912E1,3.160251E0,7.409448E0,1.4249354E1,2.2905167E2,1.9397293E1],"tree_param":{"num_deleted":"0","num_feature":"13","num_nodes":"15","size_leaf_vector":"1"}},{"base_weights":[-4.2769853E-3,1.6352547E0,-1.4720319E-2,5.560181E-1,1.5955457E-1,-1.4610213E-1,1.2150649E-1,-1.3554373E-1,-2.950303E-2,1.0801998E-2,8.959932E-2],"categories":[],"categories_nodes":[],"categories_segments":[],"categories_sizes":[],"default_left":[0,0,0,0,0,0,0,0,0,0,0],"id":12,"left_children":[1,3,5,-1,-1,7,9,-1,-1,-1,-1],"loss_changes":[1.4815212E1,3.324747E-1,1.5398737E1,0E0,0E0,6.349409E0,6.388198E0,0E0,0E0,0E0,0E0],"parents":[2147483647,0,0,1,1,2,2,5,5,6,6],"right_children":[2,4,6,-1,-1,8,10,-1,-1,-1,-1],"split_conditions":[4.16E2,4.9E1,1E0,5.560181E-1,1.5955457E-1,3.1E1,1.335353E5,-1.3554373E-1,-2.950303E-2,1.0801998E-2,8.959932E-2],"split_indices":[0,1,8,0,0,1,7,0,0,0,0],"split_type":[0,0,0,0,0,0,0,0,0,0,0],"sum_hessian":[8.628587E2,4.476619E0,8.583821E2,3.1701846E0,1.3064343E0,4.3692456E2,4.2145752E2,5.789162E1,3.7903293E2,2.8507706E2,1.3638046E2],"tree_param":{"num_deleted":"0","num_feature":"13","num_nodes":"11","size_leaf_vector":"1"}},{"base_weights":[-8.466892E-3,9.616447E-2,-1.2743095E-1,3.973985E-2,7.95965E-1,-1.0546473E-1,-8.0247146E-1,4.5415595E-2,-2.6709283E-2,2.6382405E-1,-2.2809404E-1,-5.3987283E-2,4.3350264E-2,-2.838777E-1,-8.729227E-2],"categories":[],"categories_nodes":[],"categories_segments":[],"categories_sizes":[],"default_left":[0,0,0,0,0,0,0,0,0,0,0,0,0,0,0],"id":13,"left_children":[1,3,5,7,9,11,13,-1,-1,-1,-1,-1,-1,-1,-1],"loss_changes":[1.0660011E1,1.796204E1,5.857344E0,6.0912027E0,5.077507E0,7.2740374E0,6.4234734E-1,0E0,0E0,0E0,0E0,0E0,0E0,0E0,0E0],"parents":[2147483647,0,0,1,1,2,2,3,3,4,4,5,5,6,6],"right_children":[2,4,6,8,10,12,14,-1,-1,-1,-1,-1,-1,-1,-1],"split_conditions":[1E0,5.4E1,6.8E1,1E0,7.3E1,5E1,1.458949E5,4.5415595E-2,-2.6709283E-2,2.6382405E-1,-2.2809404E-1,-5.3987283E-2,4.3350264E-2,-2.838777E-1,-8.729227E-2],"split_indices":[6,1,1,10,1,1,7,0,0,0,0,0,0,0,0],"split_type":[0,0,0,0,0,0,0,0,0,0,0,0,0,0,0],"sum_hessian":[8.544221E2,4.546977E2,3.9972446E2,4.2174902E2,3.2948658E1,3.8824692E2,1.1477549E1,2.2580147E2,1.9594756E2,3.1684637E1,1.2640212E0,2.9932452E2,8.892237E1,8.2955885E0,3.18196E0],"tree_param":{"num_deleted":"0","num_feature":"13","num_nodes":"15","size_leaf_vector":"1"}},{"base_weights":[-1.400607E-2,-4.51935E-2,6.854254E-1,7.034448E-2,-2.9646128E-1,4.612439E-1,9.6950936E-1,1.7274162E-1,-1.777336E-2,-1.6992563E-1,-2.4329785E-2,7.598789E-2,2.7597147E-1,3.3627933E-1,-5.5267975E-2],"categories":[],"categories_nodes":[],"categories_segments":[],"categories_sizes":[],"default_left":[0,0,0,0,0,0,0,0,0,0,0,0,0,0,0],"id":14,"left_children":[1,3,5,7,9,11,13,-1,-1,-1,-1,-1,-1,-1,-1],"loss_changes":[1.8426537E1,2.34852E1,1.8493309E0,3.635335E1,1.4766514E1,1.871273E0,2.8265696E0,0E0,0E0,0E0,0E0,0E0,0E0,0E0,0E0],"parents":[2147483647,0,0,1,1,2,2,3,3,4,4,5,5,6,6],"right_children":[2,4,6,8,10,12,14,-1,-1,-1,-1,-1,-1,-1,-1],"split_conditions":[3E0,2E0,4.3E1,5.765749E4,4.575278E4,1.2761656E5,6.6E1,1.7274162E-1,-1.777336E-2,-1.6992563E-1,-2.4329785E-2,7.598789E-2,2.7597147E-1,3.3627933E-1,-5.5267975E-2],"split_indices":[4,4,1,3,3,3,1,0,0,0,0,0,0,0,0],"split_type":[0,0,0,0,0,0,0,0,0,0,0,0,0,0,0],"sum_hessian":[8.423118E2,8.072521E2,3.505973E1,5.5347375E2,2.537783E2,2.1062288E1,1.3997443E1,1.1223984E2,4.4123395E2,1.1189156E2,1.4188675E2,1.5559883E1,5.502405E0,1.2398623E1,1.5988196E0],"tree_param":{"num_deleted":"0","num_feature":"13","num_nodes":"15","size_leaf_vector":"1"}},{"base_weights":[-4.639905E-3,-1.8397796E-1,5.286004E-2,-3.2532695E-1,-5.2830067E-2,7.578712E-2,-4.7407252E-1,-4.025577E-2,-1.946029E-1,3.5783157E-2,-1.0100546E-1,1.5471209E-3,1.00145265E-1,-2.1568088E-1,-1.4477417E-2],"categories":[],"categories_nodes":[],"categories_segments":[],"categories_sizes":[],"default_left":[0,0,0,0,0,0,0,0,0,0,0,0,0,0,0],"id":15,"left_children":[1,3,5,7,9,11,13,-1,-1,-1,-1,-1,-1,-1,-1],"loss_changes":[8.514392E0,3.6987753E0,7.5900173E0,5.863675E0,5.1782513E0,1.0934478E1,2.6981182E0,0E0,0E0,0E0,0E0,0E0,0E0,0E0,0E0],"parents":[2147483647,0,0,1,1,2,2,3,3,4,4,5,5,6,6],"right_children":[2,4,6,8,10,12,14,-1,-1,-1,-1,-1,-1,-1,-1],"split_conditions":[3.5E1,1.045081E5,6.4E1,7.148179E4,1E0,5E1,1.171549E5,-4.025577E-2,-1.946029E-1,3.5783157E-2,-1.0100546E-1,1.5471209E-3,1.00145265E-1,-2.1568088E-1,-1.4477417E-2],"split_indices":[1,3,1,3,10,1,3,0,0,0,0,0,0,0,0],"split_type":[0,0,0,0,0,0,0,0,0,0,0,0,0,0,0],"sum_hessian":[8.2374066E2,1.9945517E2,6.2428546E2,9.5281624E1,1.04173546E2,5.9907556E2,2.520988E1,6.0772346E1,3.450928E1,6.521319E1,3.8960358E1,4.7113336E2,1.2794222E2,1.5568733E1,9.641148E0],"tree_param":{"num_deleted":"0","num_feature":"13","num_nodes":"15","size_leaf_vector":"1"}},{"base_weights":[-1.926357E-2,-1.1853899E-1,7.8984946E-2,9.823457E-2,-1.6912125E-1,7.5430004E-3,2.2341064E-1,-7.0385374E-2,1.0160473E-1,-7.241596E-2,-2.8106053E-3,4.216669E-2,-3.5151917E-2,1.4940825E-1,1.0652417E-2],"categories":[],"categories_nodes":[],"categories_segments":[],"categories_sizes":[],"default_left":[0,0,0,0,0,0,0,0,0,0,0,0,0,0,0],"id":16,"left_children":[1,3,5,7,9,11,13,-1,-1,-1,-1,-1,-1,-1,-1],"loss_changes":[8.005938E0,4.492433E0,4.2561426E0,6.310955E0,3.822853E0,4.6136065E0,7.0277033E0,0E0,0E0,0E0,0E0,0E0,0E0,0E0,0E0],"parents":[2147483647,0,0,1,1,2,2,3,3,4,4,5,5,6,6],"right_children":[2,4,6,8,10,12,14,-1,-1,-1,-1,-1,-1,-1,-1],"split_conditions":[1E0,5.6E2,1.335353E5,5.1E2,1E0,6.778849E4,6.31E2,-7.0385374E-2,1.0160473E-1,-7.241596E-2,-2.8106053E-3,4.216669E-2,-3.5151917E-2,1.4940825E-1,1.0652417E-2],"split_indices":[8,0,7,0,11,7,0,0,0,0,0,0,0,0,0],"split_type":[0,0,0,0,0,0,0,0,0,0,0,0,0,0,0],"sum_hessian":[8.188535E2,4.0719547E2,4.1165805E2,7.6860916E1,3.3033456E2,2.7612277E2,1.355353E2,3.22464E1,4.4614513E1,2.2709528E2,1.0323928E2,1.3355557E2,1.425672E2,5.439189E1,8.11434E1],"tree_param":{"num_deleted":"0","num_feature":"13","num_nodes":"15","size_leaf_vector":"1"}},{"base_weights":[9.800531E-3,-1.130892E-2,5.3141624E-1,7.994668E-2,-2.262613E-1,2.043884E-1,8.5361373E-1,1.159424E-1,6.5010844E-4,-1.4874822E-1,-1.2587688E-2,-4.3809086E-2,3.9413133E-1,2.8875235E-1,-1.0582064E-1],"categories":[],"categories_nodes":[],"categories_segments":[],"categories_sizes":[],"default_left":[0,0,0,0,0,0,0,0,0,0,0,0,0,0,0],"id":17,"left_children":[1,3,5,7,9,11,13,-1,-1,-1,-1,-1,-1,-1,-1],"loss_changes":[8.997402E0,1.5432019E1,3.1743221E0,1.3168222E1,1.1626747E1,6.8346224E0,2.4011946E0,0E0,0E0,0E0,0E0,0E0,0E0,0E0,0E0],"parents":[2147483647,0,0,1,1,2,2,3,3,4,4,5,5,6,6],"right_children":[2,4,6,8,10,12,14,-1,-1,-1,-1,-1,-1,-1,-1],"split_conditions":[3E0,2E0,5.111626E4,4.575278E4,4.575278E4,1.5128095E5,1.8901623E5,1.159424E-1,6.5010844E-4,-1.4874822E-1,-1.2587688E-2,-4.3809086E-2,3.9413133E-1,2.8875235E-1,-1.0582064E-1],"split_indices":[4,4,3,3,3,7,7,0,0,0,0,0,0,0,0],"split_type":[0,0,0,0,0,0,0,0,0,0,0,0,0,0,0],"sum_hessian":[8.155812E2,7.847992E2,3.0781998E1,5.513555E2,2.3344368E2,1.6087587E1,1.4694411E1,1.1078507E2,4.4057047E2,9.410809E1,1.3933559E2,1.2885755E1,3.2018318E0,1.3663201E1,1.0312107E0],"tree_param":{"num_deleted":"0","num_feature":"13","num_nodes":"15","size_leaf_vector":"1"}},{"base_weights":[-6.2050615E-3,-1.8070094E-1,4.7335956E-2,-5.409624E-1,-1.1434482E-1,1.4839318E-1,-6.3638456E-2,-3.0360514E-2,-2.0901966E-1,-1.9649817E-2,-1.6427395E-1,3.144039E-2,2.2997554E-1,2.6595103E-2,-5.987547E-2],"categories":[],"categories_nodes":[],"categories_segments":[],"categories_sizes":[],"default_left":[0,0,0,0,0,0,0,0,0,0,0,0,0,0,0],"id":18,"left_children":[1,3,5,7,9,11,13,-1,-1,-1,-1,-1,-1,-1,-1],"loss_changes":[7.4760766E0,4.4293723E0,6.877555E0,1.9128704E0,3.3482885E0,8.5654545E0,6.0751405E0,0E0,0E0,0E0,0E0,0E0,0E0,0E0,0E0],"parents":[2147483647,0,0,1,1,2,2,3,3,4,4,5,5,6,6],"right_children":[2,4,6,8,10,12,14,-1,-1,-1,-1,-1,-1,-1,-1],"split_conditions":[3.5E1,2E0,1E0,1E0,7.8E2,5.6E1,6.45E2,-3.0360514E-2,-2.0901966E-1,-1.9649817E-2,-1.6427395E-1,3.144039E-2,2.2997554E-1,2.6595103E-2,-5.987547E-2],"split_indices":[1,2,6,2,0,1,0,0,0,0,0,0,0,0,0],"split_type":[0,0,0,0,0,0,0,0,0,0,0,0,0,0,0],"sum_hessian":[7.982907E2,1.8687387E2,6.114169E2,2.7953886E1,1.5891998E2,3.1983063E2,2.9158624E2,7.743251E0,2.0210636E1,1.4385242E2,1.5067573E1,2.9985577E2,1.9974838E1,1.3769102E2,1.5389522E2],"tree_param":{"num_deleted":"0","num_feature":"13","num_nodes":"15","size_leaf_vector":"1"}},{"base_weights":[1.1260125E-2,3.6484814E-1,2.5386843E-3,-1.3165247E-2,4.2694438E-1,1.224768E-2,-4.436557E-2,8.523541E-2,3.017658E-1],"categories":[],"categories_nodes":[],"categories_segments":[],"categories_sizes":[],"default_left":[0,0,0,0,0,0,0,0,0],"id":19,"left_children":[1,-1,3,5,7,-1,-1,-1,-1],"loss_changes":[8.362746E0,0E0,5.2800756E0,5.5639563E0,2.051639E0,0E0,0E0,0E0,0E0],"parents":[2147483647,0,0,2,2,3,3,4,4],"right_children":[2,-1,4,6,8,-1,-1,-1,-1],"split_conditions":[4.16E2,3.6484814E-1,3E0,2E0,4E0,1.224768E-2,-4.436557E-2,8.523541E-2,3.017658E-1],"split_indices":[0,0,4,4,4,0,0,0,0],"split_type":[0,0,0,0,0,0,0,0,0],"sum_hessian":[7.9510425E2,4.7189455E0,7.903853E2,7.631173E2,2.7268015E1,5.4528424E2,2.1783302E2,2.3067867E1,4.2001476E0],"tree_param":{"num_deleted":"0","num_feature":"13","num_nodes":"9","size_leaf_vector":"1"}},{"base_weights":[1.2843815E-3,8.503569E-3,-8.0450433E-1,5.8102228E-2,-8.103954E-2,-3.0429745E-1,-2.6983099E-2,2.6272146E-2,-1.0130682E-1,-4.5340016E-2,2.6621312E-2],"categories":[],"categories_nodes":[],"categories_segments":[],"categories_sizes":[],"default_left":[0,0,0,0,0,0,0,0,0,0,0],"id":20,"left_children":[1,3,5,7,9,-1,-1,-1,-1,-1,-1],"loss_changes":[4.613885E0,3.4952152E0,9.6470594E-1,5.936084E0,3.3523242E0,0E0,0E0,0E0,0E0,0E0,0E0],"parents":[2147483647,0,0,1,1,2,2,3,3,4,4],"right_children":[2,4,6,8,10,-1,-1,-1,-1,-1,-1],"split_conditions":[7.2E1,7E0,8E0,7.92E2,7.04E2,-3.0429745E-1,-2.6983099E-2,2.6272146E-2,-1.0130682E-1,-4.5340016E-2,2.6621312E-2],"split_indices":[1,2,2,0,0,0,0,0,0,0,0],"split_type":[0,0,0,0,0,0,0,0,0,0,0],"sum_hessian":[7.909774E2,7.849345E2,6.042905E0,5.053617E2,2.7957285E2,4.3469715E0,1.6959336E0,4.710639E2,3.429781E1,1.9795528E2,8.161755E1],"tree_param":{"num_deleted":"0","num_feature":"13","num_nodes":"11","size_leaf_vector":"1"}},{"base_weights":[-1.036732E-2,-1.6468216E-2,2.86694E-1,-8.017959E-2,5.534457E-2,1.9019876E-2,-4.835776E-2,2.4816789E-2,-1.09478064E-1],"categories":[],"categories_nodes":[],"categories_segments":[],"categories_sizes":[],"default_left":[0,0,0,0,0,0,0,0,0],"id":21,"left_children":[1,3,-1,5,7,-1,-1,-1,-1],"loss_changes":[4.656653E0,3.5891676E0,0E0,4.844096E0,4.2750883E0,0E0,0E0,0E0,0E0],"parents":[2147483647,0,0,1,1,3,3,4,4],"right_children":[2,4,-1,6,8,-1,-1,-1,-1],"split_conditions":[4E0,4.2E1,2.86694E-1,7.388249E4,6.4E1,1.9019876E-2,-4.835776E-2,2.4816789E-2,-1.09478064E-1],"split_indices":[4,1,0,7,1,0,0,0,0],"split_type":[0,0,0,0,0,0,0,0,0],"sum_hessian":[7.8645667E2,7.8249774E2,3.95894E0,4.1457535E2,3.679224E2,1.4962048E2,2.6495486E2,3.4617444E2,2.1747934E1],"tree_param":{"num_deleted":"0","num_feature":"13","num_nodes":"9","size_leaf_vector":"1"}},{"base_weights":[-2.565621E-3,8.4360945E-1,-8.2045365E-3,3.7068602E-1,-1.18632145E-1,-1.30459415E-2,2.6461092E-1,2.4923833E-1,-5.323154E-3],"categories":[],"categories_nodes":[],"categories_segments":[],"categories_sizes":[],"default_left":[0,0,0,0,0,0,0,0,0],"id":22,"left_children":[1,3,5,-1,-1,7,-1,-1,-1],"loss_changes":[3.7480755E0,3.014375E0,3.3727202E0,0E0,0E0,3.093514E0,0E0,0E0,0E0],"parents":[2147483647,0,0,1,1,2,2,5,5],"right_children":[2,4,6,-1,-1,8,-1,-1,-1],"split_conditions":[4.16E2,2E0,4E0,3.7068602E-1,-1.18632145E-1,7.5337E2,2.6461092E-1,2.4923833E-1,-5.323154E-3],"split_indices":[0,4,4,0,0,7,0,0,0],"split_type":[0,0,0,0,0,0,0,0,0],"sum_hessian":[7.8306085E2,4.2000284E0,7.788608E2,3.1926928E0,1.007336E0,7.7562805E2,3.2327592E0,3.3206878E0,7.723074E2],"tree_param":{"num_deleted":"0","num_feature":"13","num_nodes":"9","size_leaf_vector":"1"}},{"base_weights":[-5.3571793E-3,-5.7347897E-2,1.00699216E-1,-1.4130197E-1,9.5187694E-2,2.4633123E-1,-2.0468508E-1,4.420427E-3,-8.2223944E-2,3.7167478E-1,2.3011874E-2,1.3733366E-1,3.6109094E-2,3.1535797E-2,-1.0434699E-1],"categories":[],"categories_nodes":[],"categories_segments":[],"categories_sizes":[],"default_left":[0,0,0,0,0,0,0,0,0,0,0,0,0,0,0],"id":23,"left_children":[1,3,5,7,9,11,13,-1,-1,-1,-1,-1,-1,-1,-1],"loss_changes":[4.33548E0,6.769358E0,1.1554399E1,7.0622663E0,3.8763573E0,4.6220837E0,3.7646232E0,0E0,0E0,0E0,0E0,0E0,0E0,0E0,0E0],"parents":[2147483647,0,0,1,1,2,2,3,3,4,4,5,5,6,6],"right_children":[2,4,6,8,10,12,14,-1,-1,-1,-1,-1,-1,-1,-1],"split_conditions":[1E0,1.2587722E5,2E0,5E0,1.264198E5,7.388249E4,6E2,4.420427E-3,-8.2223944E-2,3.7167478E-1,2.3011874E-2,1.3733366E-1,3.6109094E-2,3.1535797E-2,-1.0434699E-1],"split_indices":[11,7,4,2,7,7,0,0,0,0,0,0,0,0,0],"split_type":[0,0,0,0,0,0,0,0,0,0,0,0,0,0,0],"sum_hessian":[7.842277E2,5.2655865E2,2.5766907E2,3.3967728E2,1.8688135E2,1.7459932E2,8.306975E1,1.5656987E2,1.831074E2,1.9216875E0,1.8495967E2,6.419997E1,1.1039935E2,2.633551E1,5.6734238E1],"tree_param":{"num_deleted":"0","num_feature":"13","num_nodes":"15","size_leaf_vector":"1"}},{"base_weights":[-6.5389364E-3,-1.9191528E-2,3.616108E-1,4.5005012E-2,-9.4973125E-2,7.5875804E-2,8.671432E-1,-1.0022827E-2,5.848394E-2,-1.6971821E-2,-1.2374041E-1,-1.17309E-1,8.241589E-2,2.9584363E-1,-1.556109E-2],"categories":[],"categories_nodes":[],"categories_segments":[],"categories_sizes":[],"default_left":[0,0,0,0,0,0,0,0,0,0,0,0,0,0,0],"id":24,"left_children":[1,3,5,7,9,11,13,-1,-1,-1,-1,-1,-1,-1,-1],"loss_changes":[3.6002192E0,3.6370609E0,3.64385E0,4.7676864E0,4.1558914E0,1.7324735E0,1.0548949E0,0E0,0E0,0E0,0E0,0E0,0E0,0E0,0E0],"parents":[2147483647,0,0,1,1,2,2,3,3,4,4,5,5,6,6],"right_children":[2,4,6,8,10,12,14,-1,-1,-1,-1,-1,-1,-1,-1],"split_conditions":[3E0,1E0,4.3E1,6.88E2,5.9E1,6.563233E4,6.6E1,-1.0022827E-2,5.848394E-2,-1.6971821E-2,-1.2374041E-1,-1.17309E-1,8.241589E-2,2.9584363E-1,-1.556109E-2],"split_indices":[4,6,1,0,1,7,1,0,0,0,0,0,0,0,0],"split_type":[0,0,0,0,0,0,0,0,0,0,0,0,0,0,0],"sum_hessian":[7.704131E2,7.457316E2,2.4681475E1,4.0394528E2,3.4178632E2,1.6503515E1,8.177959E0,2.6574603E2,1.3819925E2,3.0595932E2,3.5827E1,4.6405373E0,1.1862978E1,7.1757336E0,1.0022262E0],"tree_param":{"num_deleted":"0","num_feature":"13","num_nodes":"15","size_leaf_vector":"1"}},{"base_weights":[9.882503E-3,-5.6030452E-2,7.5985104E-2,2.7951807E-1,-6.5923974E-2,1.5800919E-3,2.2254063E-1,-3.1791923E-3,-6.0828514E-2,2.123525E-2,-6.0907908E-2,1.22350864E-1,-1.5896557E-2],"categories":[],"categories_nodes":[],"categories_segments":[],"categories_sizes":[],"default_left":[0,0,0,0,0,0,0,0,0,0,0,0,0],"id":25,"left_children":[1,3,5,-1,7,9,11,-1,-1,-1,-1,-1,-1],"loss_changes":[3.33908E0,3.8122745E0,4.1713724E0,0E0,2.8819275E0,3.6215694E0,6.598297E0,0E0,0E0,0E0,0E0,0E0,0E0],"parents":[2147483647,0,0,1,1,2,2,4,4,5,5,6,6],"right_children":[2,4,6,-1,8,10,12,-1,-1,-1,-1,-1,-1],"split_conditions":[1E0,4.16E2,1.335353E5,2.7951807E-1,2E0,1.3300303E5,1.7419669E5,-3.1791923E-3,-6.0828514E-2,2.123525E-2,-6.0907908E-2,1.22350864E-1,-1.5896557E-2],"split_indices":[8,0,7,0,4,3,7,0,0,0,0,0,0],"split_type":[0,0,0,0,0,0,0,0,0,0,0,0,0],"sum_hessian":[7.643911E2,3.828209E2,3.8157022E2,2.8723617E0,3.7994852E2,2.5375282E2,1.27817406E2,2.7132358E2,1.0862496E2,1.9010696E2,6.3645863E1,7.613548E1,5.168192E1],"tree_param":{"num_deleted":"0","num_feature":"13","num_nodes":"13","size_leaf_vector":"1"}},{"base_weights":[1.4104288E-3,-4.647718E-3,9.8753285E-1,7.287464E-3,-3.1318343E-1,3.358124E-1,4.7191247E-1,-1.9649116E-3,2.3058997E-1,1.2240897E-1,-1.6712719E-1,2.1204223E-1,-4.5406953E-2],"categories":[],"categories_nodes":[],"categories_segments":[],"categories_sizes":[],"default_left":[0,0,0,0,0,0,0,0,0,0,0,0,0],"id":26,"left_children":[1,3,5,7,9,11,-1,-1,-1,-1,-1,-1,-1],"loss_changes":[4.5919223E0,2.8163218E0,1.2626352E0,7.766044E0,5.2376986E0,7.381971E-1,0E0,0E0,0E0,0E0,0E0,0E0,0E0],"parents":[2147483647,0,0,1,1,2,2,3,3,4,4,5,5],"right_children":[2,4,6,8,10,12,-1,-1,-1,-1,-1,-1,-1],"split_conditions":[2.0169606E5,1.9302148E5,1E0,1.8982695E5,6.932947E4,5.101129E4,4.7191247E-1,-1.9649116E-3,2.3058997E-1,1.2240897E-1,-1.6712719E-1,2.1204223E-1,-4.5406953E-2],"split_indices":[3,7,12,7,3,7,0,0,0,0,0,0,0],"split_type":[0,0,0,0,0,0,0,0,0,0,0,0,0],"sum_hessian":[7.668733E2,7.6318005E2,3.6932352E0,7.3569727E2,2.7482822E1,2.4924586E0,1.2007766E0,7.235386E2,1.2158642E1,6.775461E0,2.0707361E1,1.1589975E0,1.333461E0],"tree_param":{"num_deleted":"0","num_feature":"13","num_nodes":"13","size_leaf_vector":"1"}},{"base_weights":[5.3137206E-3,6.698032E-2,-6.719039E-2,2.6240151E-2,5.1743263E-1,-1.8152456E-1,4.5620415E-2,1.6037476E-1,2.8305547E-3,1.7761502E-1,-1.8115862E-1,-6.842444E-2,6.5534756E-2,4.6239156E-2,-7.707153E-2],"categories":[],"categories_nodes":[],"categories_segments":[],"categories_sizes":[],"default_left":[0,0,0,0,0,0,0,0,0,0,0,0,0,0,0],"id":27,"left_children":[1,3,5,7,9,11,13,-1,-1,-1,-1,-1,-1,-1,-1],"loss_changes":[3.4443357E0,7.62521E0,4.575552E0,3.264903E0,3.241622E0,3.328426E0,5.916899E0,0E0,0E0,0E0,0E0,0E0,0E0,0E0,0E0],"parents":[2147483647,0,0,1,1,2,2,3,3,4,4,5,5,6,6],"right_children":[2,4,6,8,10,12,14,-1,-1,-1,-1,-1,-1,-1,-1],"split_conditions":[1E0,5.2E1,4.2E1,2.5E1,7.1E1,1.7836148E5,5.7E1,1.6037476E-1,2.8305547E-3,1.7761502E-1,-1.8115862E-1,-6.842444E-2,6.5534756E-2,4.6239156E-2,-7.707153E-2],"split_indices":[6,1,1,1,1,7,1,0,0,0,0,0,0,0,0],"split_type":[0,0,0,0,0,0,0,0,0,0,0,0,0,0,0],"sum_hessian":[7.6835187E2,4.1524857E2,3.5310333E2,3.8177777E2,3.3470795E1,1.750651E2,1.7803824E2,1.1231108E1,3.7054666E2,3.1824972E1,1.6458226E0,1.5719713E2,1.7867962E1,1.313986E2,4.6639633E1],"tree_param":{"num_deleted":"0","num_feature":"13","num_nodes":"15","size_leaf_vector":"1"}},{"base_weights":[-1.010209E-2,6.2046476E-2,-7.0251025E-2,9.1985054E-2,-3.3146477E-1,-8.0654085E-1,-5.4762993E-2,2.3511702E-2,5.49677E-1,-2.1797061E-2,-2.795184E-1,-3.03389E-1,9.325375E-2,1.7486956E-3,-4.9382202E-2],"categories":[],"categories_nodes":[],"categories_segments":[],"categories_sizes":[],"default_left":[0,0,0,0,0,0,0,0,0,0,0,0,0,0,0],"id":28,"left_children":[1,3,5,7,9,11,13,-1,-1,-1,-1,-1,-1,-1,-1],"loss_changes":[3.3148324E0,4.122752E0,4.7052994E0,7.521962E0,3.7813058E0,2.260809E0,2.722988E0,0E0,0E0,0E0,0E0,0E0,0E0,0E0,0E0],"parents":[2147483647,0,0,1,1,2,2,3,3,4,4,5,5,6,6],"right_children":[2,4,6,8,10,12,14,-1,-1,-1,-1,-1,-1,-1,-1],"split_conditions":[6.39E2,1.5956194E5,6.41E2,1.5858481E5,1E0,1.5050064E5,7E0,2.3511702E-2,5.49677E-1,-2.1797061E-2,-2.795184E-1,-3.03389E-1,9.325375E-2,1.7486956E-3,-4.9382202E-2],"split_indices":[0,3,0,3,11,3,2,0,0,0,0,0,0,0,0],"split_type":[0,0,0,0,0,0,0,0,0,0,0,0,0,0,0],"sum_hessian":[7.6184174E2,3.463563E2,4.1548544E2,3.225804E2,2.377587E1,7.507538E0,4.079779E2,3.2111365E2,1.4667734E0,1.7396347E1,6.3795223E0,6.4251113E0,1.0824264E0,2.6354758E2,1.4443033E2],"tree_param":{"num_deleted":"0","num_feature":"13","num_nodes":"15","size_leaf_vector":"1"}},{"base_weights":[-1.3682412E-2,-7.634712E-2,4.333694E-2,-1.1201759E-1,2.4576879E-1,-7.3864624E-2,1.7350757E-1,-2.7847629E-2,-2.6312146E-1,2.670113E-1,-4.193084E-3,-4.8169296E-2,1.7396091E-1,1.16616644E-1,-6.703701E-2],"categories":[],"categories_nodes":[],"categories_segments":[],"categories_sizes":[],"default_left":[0,0,0,0,0,0,0,0,0,0,0,0,0,0,0],"id":29,"left_children":[1,3,5,7,9,11,13,-1,-1,-1,-1,-1,-1,-1,-1],"loss_changes":[2.7111318E0,4.1801033E0,6.076071E0,4.7061706E0,6.09455E0,1.1986189E1,1.6199E1,0E0,0E0,0E0,0E0,0E0,0E0,0E0,0E0],"parents":[2147483647,0,0,1,1,2,2,3,3,4,4,5,5,6,6],"right_children":[2,4,6,8,10,12,14,-1,-1,-1,-1,-1,-1,-1,-1],"split_conditions":[1.045081E5,1.8154367E5,1E0,1.031952E5,1E0,1.694454E5,1.3673323E5,-2.7847629E-2,-2.6312146E-1,2.670113E-1,-4.193084E-3,-4.8169296E-2,1.7396091E-1,1.16616644E-1,-6.703701E-2],"split_indices":[3,7,11,3,5,3,3,0,0,0,0,0,0,0,0],"split_type":[0,0,0,0,0,0,0,0,0,0,0,0,0,0,0],"sum_hessian":[7.568356E2,3.604068E2,3.964288E2,3.250623E2,3.5344498E1,2.0883388E2,1.8759494E2,3.182012E2,6.8610725E0,9.458134E0,2.5886364E1,1.8504694E2,2.3786943E1,1.2165845E2,6.5936485E1],"tree_param":{"num_deleted":"0","num_feature":"13","num_nodes":"15","size_leaf_vector":"1"}},{"base_weights":[7.183725E-3,6.495137E-2,-5.210102E-2,2.0823022E-2,2.0244363E-1,-8.836227E-2,1.6614515E-1,1.5747448E-2,-1.1501309E-1,6.4327163E-3,1.8453261E-1,-2.0159852E-2,-2.3878747E-1,7.571578E-2,-2.3541404E-1],"categories":[],"categories_nodes":[],"categories_segments":[],"categories_sizes":[],"default_left":[0,0,0,0,0,0,0,0,0,0,0,0,0,0,0],"id":30,"left_children":[1,3,5,7,9,11,13,-1,-1,-1,-1,-1,-1,-1,-1],"loss_changes":[2.5754824E0,2.3063936E0,2.952354E0,3.724738E0,6.889587E0,4.722989E0,4.5634766E0,0E0,0E0,0E0,0E0,0E0,0E0,0E0,0E0],"parents":[2147483647,0,0,1,1,2,2,3,3,4,4,5,5,6,6],"right_children":[2,4,6,8,10,12,14,-1,-1,-1,-1,-1,-1,-1,-1],"split_conditions":[1E0,8E0,5.2E1,7.9E2,7E2,5.1E1,6.8E1,1.5747448E-2,-1.1501309E-1,6.4327163E-3,1.8453261E-1,-2.0159852E-2,-2.3878747E-1,7.571578E-2,-2.3541404E-1],"split_indices":[9,2,1,0,0,1,1,0,0,0,0,0,0,0,0],"split_type":[0,0,0,0,0,0,0,0,0,0,0,0,0,0,0],"sum_hessian":[7.5003467E2,3.798295E2,3.702052E2,2.8841403E2,9.141545E1,3.179701E2,5.2235096E1,2.6826593E2,2.0148102E1,6.427528E1,2.7140171E1,3.097996E2,8.17051E0,4.8564934E1,3.6701612E0],"tree_param":{"num_deleted":"0","num_feature":"13","num_nodes":"15","size_leaf_vector":"1"}},{"base_weights":[2.3701506E-2,-2.2643974E-1,3.858016E-2,1.9417877E-1,-2.8037688E-1,7.169465E-1,2.7014952E-2,8.427406E-2,-1.0332252E-1,4.5316577E-2,3.5355458E-1,1.9153465E-1,5.9497408E-3],"categories":[],"categories_nodes":[],"categories_segments":[],"categories_sizes":[],"default_left":[0,0,0,0,0,0,0,0,0,0,0,0,0],"id":31,"left_children":[1,3,5,-1,7,9,11,-1,-1,-1,-1,-1,-1],"loss_changes":[2.8235683E0,2.1893053E0,5.5878515E0,0E0,1.5640779E0,2.9410477E0,3.0780187E0,0E0,0E0,0E0,0E0,0E0,0E0],"parents":[2147483647,0,0,1,1,2,2,4,4,5,5,6,6],"right_children":[2,4,6,-1,8,10,12,-1,-1,-1,-1,-1,-1],"split_conditions":[1.206739E4,1E0,1.521653E4,1.9417877E-1,7.5337E2,1E0,4.3E2,8.427406E-2,-1.0332252E-1,4.5316577E-2,3.5355458E-1,1.9153465E-1,5.9497408E-3],"split_indices":[7,2,7,0,7,8,0,0,0,0,0,0,0],"split_type":[0,0,0,0,0,0,0,0,0,0,0,0,0],"sum_hessian":[7.5531647E2,4.160643E1,7.137101E2,1.779577E0,3.982685E1,1.094141E1,7.027687E2,3.7313454E0,3.609551E1,5.511491E0,5.429919E0,7.1390905E0,6.956296E2],"tree_param":{"num_deleted":"0","num_feature":"13","num_nodes":"13","size_leaf_vector":"1"}},{"base_weights":[-2.4467425E-2,-2.2037144E-1,-1.5038573E-3,-1.4644164E-1,-9.998568E-1,3.487201E-2,-8.525412E-2,-1.0203004E-1,2.4699809E-2,-3.6246938E-1,-6.835542E-2,9.323847E-2,-1.2325095E-2,-8.82324E-2,1.771868E-2],"categories":[],"categories_nodes":[],"categories_segments":[],"categories_sizes":[],"default_left":[0,0,0,0,0,0,0,0,0,0,0,0,0,0,0],"id":32,"left_children":[1,3,5,7,9,11,13,-1,-1,-1,-1,-1,-1,-1,-1],"loss_changes":[3.3950512E0,4.4166136E0,2.0641448E0,3.2840936E0,8.0054283E-1,9.913429E0,6.2012873E0,0E0,0E0,0E0,0E0,0E0,0E0,0E0,0E0],"parents":[2147483647,0,0,1,1,2,2,3,3,4,4,5,5,6,6],"right_children":[2,4,6,8,10,12,14,-1,-1,-1,-1,-1,-1,-1,-1],"split_conditions":[5.21E2,5.8E1,2E0,4.1E1,2E0,5.765749E4,4.575278E4,-1.0203004E-1,2.4699809E-2,-3.6246938E-1,-6.835542E-2,9.323847E-2,-1.2325095E-2,-8.82324E-2,1.771868E-2],"split_indices":[0,1,4,1,4,3,3,0,0,0,0,0,0,0,0],"split_type":[0,0,0,0,0,0,0,0,0,0,0,0,0,0,0],"sum_hessian":[7.5375507E2,7.818197E1,6.755731E2,7.249417E1,5.6877937E0,4.7140704E2,2.0416606E2,3.899669E1,3.3497486E1,4.0339284E0,1.6538653E0,1.0108941E2,3.7031763E2,8.300449E1,1.21161575E2],"tree_param":{"num_deleted":"0","num_feature":"13","num_nodes":"15","size_leaf_vector":"1"}},{"base_weights":[-1.4877071E-2,-2.7817558E-2,3.6868706E-1,-3.3154573E-2,7.8814363E-1,1.1933625E-1,6.7448914E-1,4.8609484E-2,-1.2887985E-2,6.805808E-2,3.797789E-1,-2.73322E-2,2.821945E-1,4.6096507E-2,2.6138616E-1],"categories":[],"categories_nodes":[],"categories_segments":[],"categories_sizes":[],"default_left":[0,0,0,0,0,0,0,0,0,0,0,0,0,0,0],"id":33,"left_children":[1,3,5,7,9,11,13,-1,-1,-1,-1,-1,-1,-1,-1],"loss_changes":[3.719384E0,3.1782238E0,1.7845321E0,1.3850975E0,9.8501205E-1,2.6243463E0,9.701228E-1,0E0,0E0,0E0,0E0,0E0,0E0,0E0,0E0],"parents":[2147483647,0,0,1,1,2,2,3,3,4,4,5,5,6,6],"right_children":[2,4,6,8,10,12,14,-1,-1,-1,-1,-1,-1,-1,-1],"split_conditions":[3E0,2.0169606E5,5.111626E4,1E0,1E0,1.635879E5,4E0,4.8609484E-2,-1.2887985E-2,6.805808E-2,3.797789E-1,-2.73322E-2,2.821945E-1,4.6096507E-2,2.6138616E-1],"split_indices":[4,3,3,2,12,7,2,0,0,0,0,0,0,0,0],"split_type":[0,0,0,0,0,0,0,0,0,0,0,0,0,0,0],"sum_hessian":[7.462796E2,7.228209E2,2.3458681E1,7.1907697E2,3.74395E0,1.3687854E1,9.770828E0,3.365307E1,6.854239E2,2.3996985E0,1.3442515E0,1.1603721E1,2.0841334E0,3.1678243E0,6.6030035E0],"tree_param":{"num_deleted":"0","num_feature":"13","num_nodes":"15","size_leaf_vector":"1"}},{"base_weights":[1.6692657E-2,1.3581344E-2,2.2765444E-1,1.7253846E-2,-5.2582806E-1,-3.585585E-3,2.563411E-2,6.7331634E-2,-2.3073412E-1],"categories":[],"categories_nodes":[],"categories_segments":[],"categories_sizes":[],"default_left":[0,0,0,0,0,0,0,0,0],"id":34,"left_children":[1,3,-1,5,7,-1,-1,-1,-1],"loss_changes":[1.7112294E0,1.481848E0,0E0,1.4736326E0,1.0960846E0,0E0,0E0,0E0,0E0],"parents":[2147483647,0,0,1,1,3,3,4,4],"right_children":[2,4,-1,6,8,-1,-1,-1,-1],"split_conditions":[4E0,7.2E1,2.2765444E-1,7.02E2,5.95E2,-3.585585E-3,2.563411E-2,6.7331634E-2,-2.3073412E-1],"split_indices":[4,1,0,0,0,0,0,0,0],"split_type":[0,0,0,0,0,0,0,0,0],"sum_hessian":[7.445514E2,7.424571E2,2.0942764E0,7.383978E2,4.059277E0,5.175613E2,2.2083656E2,1.0129416E0,3.0463352E0],"tree_param":{"num_deleted":"0","num_feature":"13","num_nodes":"9","size_leaf_vector":"1"}},{"base_weights":[-3.5746398E-3,4.115373E-2,-6.400981E-2,-1.769381E-1,7.549389E-2,-2.8293395E-1,-1.0258379E-2,-1.9472925E-2,-1.9411743E-1,2.9742813E-2,-8.274069E-2,-1.1635792E-1,3.3009425E-1,2.2744823E-1,-1.4450961E-2],"categories":[],"categories_nodes":[],"categories_segments":[],"categories_sizes":[],"default_left":[0,0,0,0,0,0,0,0,0,0,0,0,0,0,0],"id":35,"left_children":[1,3,5,7,9,11,13,-1,-1,-1,-1,-1,-1,-1,-1],"loss_changes":[2.011396E0,3.2162354E0,3.7209682E0,3.0377822E0,3.1027308E0,9.475235E0,7.468378E0,0E0,0E0,0E0,0E0,0E0,0E0,0E0,0E0],"parents":[2147483647,0,0,1,1,2,2,3,3,4,4,5,5,6,6],"right_children":[2,4,6,8,10,12,14,-1,-1,-1,-1,-1,-1,-1,-1],"split_conditions":[6.68E2,5.1E2,6.88E2,5E2,1.5956194E5,1.6768556E5,6.93E2,-1.9472925E-2,-1.9411743E-1,2.9742813E-2,-8.274069E-2,-1.1635792E-1,3.3009425E-1,2.2744823E-1,-1.4450961E-2],"split_indices":[0,0,0,0,3,3,0,0,0,0,0,0,0,0,0],"split_type":[0,0,0,0,0,0,0,0,0,0,0,0,0,0,0],"sum_hessian":[7.421143E2,4.266601E2,3.1545425E2,5.7476772E1,3.6918332E2,6.1343716E1,2.5411052E2,4.733503E1,1.0141743E1,3.465704E2,2.2612911E1,5.7687458E1,3.6562595E0,1.1054348E1,2.4305618E2],"tree_param":{"num_deleted":"0","num_feature":"13","num_nodes":"15","size_leaf_vector":"1"}},{"base_weights":[-2.5987802E-2,1.930686E-1,-3.0552242E-2,-3.9033208E-2,2.3791777E-1,-8.051547E-3,-5.827492E-2,2.3752144E-2,2.2786878E-1],"categories":[],"categories_nodes":[],"categories_segments":[],"categories_sizes":[],"default_left":[0,0,0,0,0,0,0,0,0],"id":36,"left_children":[1,-1,3,5,7,-1,-1,-1,-1],"loss_changes":[2.2886958E0,0E0,1.6905E0,1.3512415E0,1.8239236E0,0E0,0E0,0E0,0E0],"parents":[2147483647,0,0,2,2,3,3,4,4],"right_children":[2,-1,4,6,8,-1,-1,-1,-1],"split_conditions":[4.16E2,1.930686E-1,3E0,7.92E2,1.2761656E5,-8.051547E-3,-5.827492E-2,2.3752144E-2,2.2786878E-1],"split_indices":[0,0,4,0,3,0,0,0,0],"split_type":[0,0,0,0,0,0,0,0,0],"sum_hessian":[7.414556E2,4.072504E0,7.373831E2,7.156309E2,2.175217E1,6.645898E2,5.104115E1,1.7560144E1,4.192025E0],"tree_param":{"num_deleted":"0","num_feature":"13","num_nodes":"9","size_leaf_vector":"1"}},{"base_weights":[2.686146E-2,-3.9806314E-2,8.1841886E-2,-5.884089E-1,-2.0910533E-2,1.0483897E-1,-5.0814325E-1,-2.202948E-1,1.324506E-1,-7.824942E-2,3.7809415E-3,2.692468E-2,2.1253845E-1,-6.3987374E-2,-3.6060628E-1],"categories":[],"categories_nodes":[],"categories_segments":[],"categories_sizes":[],"default_left":[0,0,0,0,0,0,0,0,0,0,0,0,0,0,0],"id":37,"left_children":[1,3,5,7,9,11,13,-1,-1,-1,-1,-1,-1,-1,-1],"loss_changes":[2.709429E0,3.4537156E0,5.5474973E0,1.9916215E0,2.6105359E0,3.4940743E0,2.8867786E0,0E0,0E0,0E0,0E0,0E0,0E0,0E0,0E0],"parents":[2147483647,0,0,1,1,2,2,3,3,4,4,5,5,6,6],"right_children":[2,4,6,8,10,12,14,-1,-1,-1,-1,-1,-1,-1,-1],"split_conditions":[1.0295468E5,4.65E2,1.9302148E5,1.8555562E5,3.1E1,1.8982695E5,1.4609339E5,-2.202948E-1,1.324506E-1,-7.824942E-2,3.7809415E-3,2.692468E-2,2.1253845E-1,-6.3987374E-2,-3.6060628E-1],"split_indices":[3,0,7,7,1,7,3,0,0,0,0,0,0,0,0],"split_type":[0,0,0,0,0,0,0,0,0,0,0,0,0,0,0],"sum_hessian":[7.372971E2,3.3335538E2,4.039417E2,1.009606E1,3.232593E2,3.895786E2,1.4363118E1,9.094636E0,1.001424E0,3.878914E1,2.8447018E2,3.8119766E2,8.380926E0,1.0997358E1,3.3657591E0],"tree_param":{"num_deleted":"0","num_feature":"13","num_nodes":"15","size_leaf_vector":"1"}},{"base_weights":[-1.2421521E-2,1.030226E-3,-2.554456E-1,4.370639E-1,-5.9827133E-3,-3.653328E-1,5.2423084E-1,1.9654673E-2,2.1434966E-1,-1.5094863E-1,1.5205572E-3,-6.766253E-2,-3.5604495E-1,2.9028216E-1,-1.0142636E-1],"categories":[],"categories_nodes":[],"categories_segments":[],"categories_sizes":[],"default_left":[0,0,0,0,0,0,0,0,0,0,0,0,0,0,0],"id":38,"left_children":[1,3,5,7,9,11,13,-1,-1,-1,-1,-1,-1,-1,-1],"loss_changes":[2.431342E0,2.160396E0,3.5335424E0,1.1059494E0,3.8237379E0,3.7261186E0,2.326447E0,0E0,0E0,0E0,0E0,0E0,0E0,0E0,0E0],"parents":[2147483647,0,0,1,1,2,2,3,3,4,4,5,5,6,6],"right_children":[2,4,6,8,10,12,14,-1,-1,-1,-1,-1,-1,-1,-1],"split_conditions":[1E1,4.37E2,1.4362583E5,1.0248276E5,4.74E2,1.3024033E5,1E0,1.9654673E-2,2.1434966E-1,-1.5094863E-1,1.5205572E-3,-6.766253E-2,-3.5604495E-1,2.9028216E-1,-1.0142636E-1],"split_indices":[2,0,3,3,0,3,10,0,0,0,0,0,0,0,0],"split_type":[0,0,0,0,0,0,0,0,0,0,0,0,0,0,0],"sum_hessian":[7.426541E2,7.0464667E2,3.800749E1,1.0183111E1,6.9446356E2,3.3778233E1,4.229257E0,4.881637E0,5.301474E0,1.4132503E1,6.8033105E2,2.9955318E1,3.8229125E0,2.7124856E0,1.5167714E0],"tree_param":{"num_deleted":"0","num_feature":"13","num_nodes":"15","size_leaf_vector":"1"}},{"base_weights":[-2.6111188E-3,-6.108508E-3,5.828241E-1,3.352495E-2,-5.3206198E-2,1.6650607E-1,2.9671675E-1,5.551781E-3,8.5175306E-2,-7.893955E-3,-1.3915023E-1,1.5338963E-1,-6.3581355E-2],"categories":[],"categories_nodes":[],"categories_segments":[],"categories_sizes":[],"default_left":[0,0,0,0,0,0,0,0,0,0,0,0,0],"id":39,"left_children":[1,3,5,7,9,11,-1,-1,-1,-1,-1,-1,-1],"loss_changes":[1.525738E0,1.3831171E0,5.837252E-1,1.5082618E0,3.7263854E0,5.504366E-1,0E0,0E0,0E0,0E0,0E0,0E0,0E0],"parents":[2147483647,0,0,1,1,2,2,3,3,4,4,5,5],"right_children":[2,4,6,8,10,12,-1,-1,-1,-1,-1,-1,-1],"split_conditions":[2.0169606E5,1E0,1E0,1.652572E5,1.6208231E5,5.101129E4,2.9671675E-1,5.551781E-3,8.5175306E-2,-7.893955E-3,-1.3915023E-1,1.5338963E-1,-6.3581355E-2],"split_indices":[3,6,12,3,3,7,0,0,0,0,0,0,0],"split_type":[0,0,0,0,0,0,0,0,0,0,0,0,0],"sum_hessian":[7.424342E2,7.39009E2,3.4252725E0,4.0146118E2,3.375478E2,2.3879309E0,1.0373416E0,3.797566E2,2.1704584E1,3.1779846E2,1.974931E1,1.0658242E0,1.3221067E0],"tree_param":{"num_deleted":"0","num_feature":"13","num_nodes":"13","size_leaf_vector":"1"}}]},"name":"gbtree"},"learner_model_param":{"base_score":"2.3415439E-1","boost_from_average":"1","num_class":"0","num_feature":"13","num_target":"1"},"objective":{"name":"binary:logistic","reg_loss_param":{"scale_pos_weight":"1"}}},"version":[2,0,3]}